{"ip":0,"fr":60,"v":"5.1.20","assets":[],"layers":[{"ty":4,"nm":"salesndeals","ip":0,"st":0,"ind":1,"hix":1,"ks":{"o":{"a":0,"k":100},"or":{"a":0,"k":[0,0,0]},"a":{"a":0,"k":[64,64,0]},"p":{"s":true,"x":{"a":0,"k":275.5},"y":{"a":0,"k":202.3}},"rx":{"a":0,"k":0},"ry":{"a":0,"k":0},"rz":{"a":0,"k":0},"s":{"a":0,"k":[320.8,305.2]}},"shapes":[{"ty":"gr","it":[{"ty":"sh","ks":{"a":0,"k":{"c":true,"v":[[31.5419938,0.138762539],[16.5391007,4.40625212],[1.5362077,0.138762539],[0.135937678,0.472160162],[0.469335301,1.87243018],[16.5391007,6.40663786],[18.1394093,6.33995833],[19.0062432,9.80729362],[21.4733856,13.2079494],[24.3406051,14.0081037],[25.6741956,13.8747446],[29.7416466,7.20679215],[28.9414923,3.8061364],[32.7422252,1.80575066],[33.0756229,0.405480637]],"i":[[0.4667566999999977,-0.266718099],[5.334362000000002,0],[4.46752815,2.800540031],[0.333397623,-0.46675667271],[-0.46675667259,-0.33339761999999995],[-5.667759499999999,0],[-0.5334362000000006,0.06667953000000004],[0,0],[-1.2669110000000003,-0.7334747999999998],[-1.0001928000000007,0],[-0.4667566000000001,0.06667950000000111],[0.6667953000000004,3.0005786499999996],[0,0],[-1.2669108999999992,0.8001542900000003],[0.2667180999999985,0.46675667300000007]],"o":[[-4.4675282,2.800540031],[-5.334361899999999,0],[-0.46675668000000003,-0.266718099],[-0.266718099,0.466756673],[4.800925779,3.00057861],[0.5334362000000006,0],[0,0],[0.3333976000000014,1.400269980000001],[0.8668337999999984,0.5334361999999988],[0.4667566999999977,0],[2.933899099999998,-0.7334747000000004],[0,0],[1.2669110000000003,-0.6001157300000002],[0.4667566999999977,-0.26671809999999985],[-0.40007719999999836,-0.40007714770999997]]}}},{"ty":"sh","ks":{"a":0,"k":{"c":true,"v":[[27.7412609,7.74022835],[25.1407594,11.9410384],[22.4735784,11.5409613],[20.8732699,9.40721647],[20.0731156,6.20659928],[26.8744271,4.60629069]],"i":[[0,0],[1.8670267000000003,-0.40007710000000074],[0.8001542999999991,0.4667566000000001],[0.2667180999999985,0.8668338300000009],[0,0],[-2.200424299999998,0.8001543]],"o":[[0.46675670000000125,1.8670266900000003],[-0.9335133000000013,0.20003859999999918],[-0.8001543000000026,-0.46675669999999947],[0,0],[2.3337833000000003,-0.26671808999999946],[0,0]]}}},{"ty":"st","o":{"a":0,"k":0},"w":{"a":0,"k":0},"c":{"a":0,"k":[0,0,0,0]},"lc":3,"lj":1},{"ty":"fl","o":{"a":0,"k":100},"r":1,"c":{"a":0,"k":[1,1,1,1]}},{"ty":"tr","o":{"a":0,"k":100},"a":{"a":0,"k":[0,0]},"s":{"a":0,"k":[100,100]},"p":{"a":0,"k":[40.031,67.607]},"r":{"a":0,"k":37.98710181717358}}]},{"ty":"gr","it":[{"ty":"sh","ks":{"a":0,"k":{"c":true,"v":[[52.8109,59.5176],[55.6217,56.7588],[52.8109,54],[50.0001,56.7588]],"i":[[-1.5523619999999951,0],[0,1.5236432000000022],[1.8738667000000007,0.8234379000000018],[0,-1.0157621000000034]],"o":[[1.5523620000000022,0],[0,-1.0157621000000034],[-1.8738666999999936,0.8234379000000018],[0,1.5236432000000022]]}}},{"ty":"st","o":{"a":0,"k":0},"w":{"a":0,"k":0},"c":{"a":0,"k":[0,0,0,0]},"lc":3,"lj":1},{"ty":"fl","o":{"a":0,"k":70.0464221},"r":1,"c":{"a":0,"k":[0.21568627450980393,0.2196078431372549,0.22745098039215686,1]}},{"ty":"tr","o":{"a":0,"k":100},"a":{"a":0,"k":[0,0]},"s":{"a":0,"k":[100,100]},"p":{"a":0,"k":[0,0]},"r":{"a":0,"k":0}}]},{"ty":"gr","it":[{"ty":"sh","ks":{"a":0,"k":{"c":true,"v":[[75.3108,74.5176],[78.1216,71.7588],[75.3108,69],[72.5,71.7588]],"i":[[-1.5523620000000022,0],[0,1.5236432000000093],[1.8738666999999936,0.8234379000000018],[0,-1.0157620999999892]],"o":[[1.5523620000000022,0],[0,-1.0157620999999892],[-1.8738666999999936,0.8234379000000018],[0,1.5236432000000093]]}}},{"ty":"st","o":{"a":0,"k":0},"w":{"a":0,"k":0},"c":{"a":0,"k":[0,0,0,0]},"lc":3,"lj":1},{"ty":"fl","o":{"a":0,"k":70.0464221},"r":1,"c":{"a":0,"k":[0.21568627450980393,0.2196078431372549,0.22745098039215686,1]}},{"ty":"tr","o":{"a":0,"k":100},"a":{"a":0,"k":[0,0]},"s":{"a":0,"k":[100,100]},"p":{"a":0,"k":[0,0]},"r":{"a":0,"k":0}}]},{"ty":"gr","it":[{"ty":"sh","ks":{"a":0,"k":{"c":true,"v":[[105.4688,79.0947],[103.064,73.0039],[101.3643,70.6045],[103.7095,68.9922],[108.1201,64],[103.7095,59.0078],[101.3643,57.3955],[103.064,54.9951],[105.4688,48.9053],[99.6479,45.75],[96.8579,45.0264],[97.6274,42.2158],[97.7974,35.6387],[94.4063,34.332],[91.2778,34.667],[88.769,34.9531],[88.3843,34.9326],[88.1563,32.0537],[86.0669,25.7881],[84.3364,25.3418],[79.6328,27.0947],[76.9858,28.3428],[75.7949,25.7373],[71.6567,20.543],[71.105,20.4951],[66.1021,23.959],[64,26.0742],[61.8984,23.959],[56.8945,20.4951],[56.3423,20.543],[52.2051,25.7363],[51.0142,28.3428],[48.3667,27.0938],[43.6636,25.3408],[41.9341,25.7861],[39.8447,32.0527],[39.6167,34.9316],[39.2319,34.9521],[36.7227,34.666],[33.5947,34.3311],[30.2036,35.6377],[30.373,42.2148],[31.1421,45.0264],[28.3511,45.75],[22.5313,48.9053],[24.936,54.9951],[26.6357,57.3955],[24.2905,59.0078],[19.8799,64],[24.2905,68.9922],[26.6357,70.6045],[24.936,73.0049],[22.5313,79.0947],[28.3516,82.25],[31.1416,82.9736],[30.3726,85.7842],[30.2031,92.3613],[33.5942,93.668],[36.7227,93.333],[39.231,93.0469],[39.6157,93.0674],[39.8438,95.9463],[41.9331,102.2119],[43.6641,102.6582],[48.3672,100.9053],[51.0142,99.6572],[52.2051,102.2627],[56.3433,107.457],[56.895,107.5049],[61.8979,104.041],[64,101.9258],[66.1016,104.041],[71.105,107.5049],[71.106,107.5049],[71.6577,107.457],[75.7949,102.2637],[76.9858,99.6572],[79.6328,100.9063],[84.3364,102.6592],[86.0659,102.2139],[88.1553,95.9473],[88.3833,93.0684],[88.7681,93.0479],[91.2773,93.334],[94.4053,93.6689],[97.7964,92.3623],[97.627,85.7852],[96.8579,82.9736],[99.6489,82.25]],"i":[[-0.7916000000000025,2.1728999999999985],[1.5664000000000016,1.9394999999999953],[0.48100900000000024,0.8570957000000021],[-0.8329230000000081,0.4588877999999994],[0,2.3311000000000064],[2.1683999999999912,1.3085999999999984],[0.726553999999993,0.6135841999999982],[-0.6489719999999863,0.7384758999999974],[0.7811999999999983,2.1455000000000055],[2.472699999999989,0.4823999999999984],[0.9032279000000045,0.3346395999999956],[-0.3523062999999951,0.9079659000000007],[1.475999999999999,1.7578000000000031],[1.2675535000000053,-0.08450150000000178],[1.0329557000000023,-0.1899709999999999],[0.8418202000000008,-0.03794640000000271],[0.12768520000000194,0.014792100000001085],[-0.02103540000000237,0.9648596999999981],[1.9960999999999984,1.1553000000000004],[0.6062526999999989,-0.007725399999998217],[1.6358000000000033,-0.9012999999999991],[0.9234660999999988,-0.3225321000000001],[0.3094748000000038,0.9058858999999977],[2.2881,0.4004000000000012],[0.18494779999998912,-0.00021819999999905804],[1.4838000000000022,-1.7030999999999992],[0.7758766999999978,-0.6261463999999997],[0.6210205999999943,0.7798468000000014],[1.9848999999999961,0],[0.18231379999999575,-0.03206869999999995],[0.9095999999999975,-2.3564000000000007],[0.4826657999999995,-0.8270641000000012],[0.8366508999999951,0.5072931999999994],[1.5223999999999975,0],[0.5266459999999995,-0.2995845000000017],[0.045899999999996055,-2.5127000000000024],[0.1725595999999996,-0.9495321000000061],[0.12856739999999434,0.0011410999999981186],[0.8288804999999968,0.15258670000000052],[1.0495911999999947,0.03301220000000171],[0.8831243999999998,-0.9131716000000054],[-0.809000000000001,-2.369099999999996],[-0.15887749999999912,-0.9611808000000011],[0.9523654000000015,-0.1464104000000006],[0.7914999999999992,-2.1728999999999985],[-1.5664000000000016,-1.9393999999999991],[-0.4810428999999985,-0.8573846999999972],[0.8329987999999986,-0.4587654000000043],[0,-2.3310999999999993],[-2.168400000000002,-1.3085999999999984],[-0.7265532999999991,-0.6135850000000005],[0.6489709999999995,-0.7384764000000104],[-0.7813000000000017,-2.1454999999999984],[-2.472200000000001,-0.4823999999999984],[-0.9032084000000005,-0.33470170000001076],[0.35216780000000014,-0.9079739000000018],[-1.476499999999998,-1.7567999999999984],[-1.2675534999999982,0.08450149999998757],[-1.032959500000004,0.1899450000000087],[-0.8416566000000003,0.03792190000000062],[-0.12768519999999484,-0.01479210000000819],[0.020956499999996936,-0.9648617999999942],[-1.9961000000000055,-1.1552999999999969],[-0.6064185999999978,0.007789000000002488],[-1.6357999999999961,0.9013000000000062],[-0.9234888000000012,0.32247669999999573],[-0.3094748000000038,-0.9058859999999953],[-2.2881,-0.40039999999999054],[-0.18494780000000333,0.0002179999999896154],[-1.4838000000000022,1.7031000000000063],[-0.7758766999999978,0.6261460000000056],[-0.6210206000000085,-0.7798470000000037],[-1.984400000000008,0],[0,0],[-0.1821455000000043,0.03206900000000701],[-0.9095999999999975,2.3563999999999936],[-0.4826657999999924,0.8270639999999929],[-0.8364314000000093,-0.507401999999999],[-1.5224000000000046,0],[-0.5266459999999995,0.29958500000000754],[-0.04590000000000316,2.5126999999999953],[-0.1725595999999996,0.949532099999999],[-0.12856730000000027,-0.0011379000000033557],[-0.8288804999999968,-0.15258670000000052],[-1.0495911999999947,-0.0330121999999875],[-0.8831243999999998,0.9131715999999983],[0.8090000000000117,2.369100000000003],[0.15887750000000267,0.961180799999994],[-0.9523653999999908,0.1464103999999935]],"o":[[0.7811999999999983,-2.1454999999999984],[-0.6489999999999867,-0.7380937000000074],[0.7267279999999943,-0.6133558000000079],[2.1683999999999912,-1.3085999999999984],[0,-2.3310999999999993],[-0.8330740000000105,-0.4586433999999997],[0.4810420000000022,-0.857385199999996],[1.5664000000000016,-1.9393999999999991],[-0.7916000000000025,-2.173899999999996],[-0.9520159000000064,-0.14652679999999663],[0.15933339999999419,-0.9607989000000003],[0.8091000000000008,-2.3701000000000008],[-0.8831002000000012,-0.913217600000003],[-1.049759199999997,0.033046300000002304],[-0.8287495000000007,0.15256300000000067],[-0.1285341000000102,0.001138599999997325],[-0.17264839999999992,-0.9495204999999984],[-0.04590000000000316,-2.512699999999999],[-0.5268979000000087,-0.29996759999999867],[-1.5228999999999928,0],[-0.8363664000000028,0.5072551999999995],[-0.4824893999999915,-0.8268057999999989],[-0.9095999999999975,-2.357400000000002],[-0.1821427,-0.032090000000000174],[-1.984400000000008,0],[-0.6213141999999863,0.7797516000000009],[-0.7758248000000023,-0.6260380000000012],[-1.4843000000000046,-1.7030999999999992],[-0.18511260000000362,-0.0001967000000000496],[-2.2871000000000024,0.4004000000000012],[-0.30929170000000283,0.9062780000000004],[-0.9235439000000056,-0.3231065000000015],[-1.6353000000000009,-0.9014000000000024],[-0.6058406000000005,-0.007999500000000381],[-1.9960999999999984,1.1553000000000004],[0.020945899999993856,0.9648570999999961],[-0.12771839999999912,0.014794599999994773],[-0.8419544999999999,-0.037922600000001694],[-1.0327899000000045,-0.1899383999999955],[-1.2675362000000021,-0.0845162999999971],[-1.4765000000000015,1.7567999999999984],[0.3524881999999998,0.9082196000000025],[-0.9035350999999991,0.3347538999999955],[-2.4721999999999973,0.4823999999999984],[-0.7813000000000017,2.1455000000000055],[0.6489709999999995,0.7384763999999961],[-0.7266407999999984,0.613470300000003],[-2.168400000000002,1.3085999999999984],[0,2.3311000000000064],[0.8330745999999998,0.4586424999999963],[-0.4810428999999985,0.8573846999999972],[-1.5664000000000016,1.939399999999992],[0.7914999999999992,2.1739000000000033],[0.9520289999999996,0.1464631000000054],[-0.15913869999999974,0.9607879999999938],[-0.8090999999999973,2.369100000000003],[0.8831002000000012,0.9132175999999959],[1.0497573999999972,-0.03307250000000295],[0.8285776999999968,-0.15258719999999926],[0.128534099999996,-0.0011385999999902197],[0.17263630000000063,0.9495230999999933],[0.04579999999999984,2.5127000000000095],[0.5270543999999973,0.3000300000000067],[1.5224000000000046,0],[0.8363381000000061,-0.5073079999999948],[0.4824893999999986,0.8268059999999906],[0.9095999999999975,2.3573999999999984],[0.1821427,0.03209000000001083],[1.9843999999999937,0],[0.6213142000000005,-0.779752000000002],[0.7758247999999952,0.6260380000000083],[1.4842999999999904,1.7031000000000063],[0,0],[0.18494689999999991,0.00019700000000000273],[2.2870999999999952,-0.40039999999999054],[0.30929170000000283,-0.9062780000000004],[0.9234210000000047,0.3230597999999958],[1.6358000000000033,0.901299999999992],[0.6058406000000076,0.007999999999995566],[1.9960999999999984,-1.1552999999999969],[-0.02094590000000096,-0.9648571000000032],[0.12771869999998842,-0.014791399999992905],[0.8419544999999999,0.037922600000001694],[1.0327898999999974,0.18993840000000262],[1.2675362000000092,0.08451630000000421],[1.4765000000000015,-1.7567999999999984],[-0.35248819999999625,-0.9082196000000096],[0.9035350999999991,-0.3347539000000097],[2.472200000000001,-0.4823999999999984]]}}},{"ty":"sh","ks":{"a":0,"k":{"c":true,"v":[[46,56.7588],[50.16817,50.429162],[57.6083423,51.872005],[59.1083831,59.3008566],[52.811,63.5176]],"i":[[0.014574400000000765,3.7471298999999973],[-2.543348700000003,1.0706802999999994],[-1.958770599999994,-1.9437584],[1.0510816000000034,-2.5515106000000003],[2.759525199999999,-0.00008100000000155205]],"o":[[-0.021149200000003532,-2.759444100000003],[2.543348799999997,-1.0706804000000005],[1.9587706000000011,1.9437584],[-1.0510814999999951,2.5515106999999944],[-3.747131099999997,0.0142542999999975]]}}},{"ty":"sh","ks":{"a":0,"k":{"c":true,"v":[[58.6032992,75.4951971],[56.7638717,75.8259047],[56.4802933,73.8104705],[69.0055981,54.9166809],[70.8450256,54.5859733],[71.1286041,56.6014074]],"i":[[0,0],[0.586204599999995,0.4651867999999979],[-0.4295833999999985,0.6479439000000013],[0,0],[-0.5862046000000021,-0.46518689999999907],[0.42958329999999023,-0.6479439000000013]],"o":[[-0.42971710000000485,0.6478376999999966],[-0.5862046000000021,-0.46518689999999197],[0,0],[0.42971710000000485,-0.6478377000000037],[0.5862046999999961,0.4651867999999979],[0,0]]}}},{"ty":"sh","ks":{"a":0,"k":{"c":true,"v":[[75.189,78],[68.4820889,71.2065332],[75.2583335,64.4822223],[82,71.2412],[79.9943284,76.0312396]],"i":[[1.7994770000000102,0.006954100000001517],[-0.019111299999991616,3.7260762000000085],[-3.726113000000012,-0.00955570000000705],[0,-3.7261253000000067],[1.2773171999999988,-1.2675277000000023]],"o":[[-3.7260149999999896,-0.028666700000002265],[0.019111300000005826,-3.7260763000000026],[3.726112999999998,0.009555599999998776],[-0.006890299999994909,1.7994772999999924],[-1.2773171999999988,1.2675277999999963]]}}},{"ty":"st","o":{"a":0,"k":0},"w":{"a":0,"k":0},"c":{"a":0,"k":[0,0,0,0]},"lc":3,"lj":1},{"ty":"fl","o":{"a":0,"k":100},"r":1,"c":{"a":0,"k":[0,0.6509803921568628,0.6,1]}},{"ty":"tr","o":{"a":0,"k":100},"a":{"a":0,"k":[0,0]},"s":{"a":0,"k":[100,100]},"p":{"a":0,"k":[0,0]},"r":{"a":0,"k":0}}]},{"ty":"gr","it":[{"ty":"sh","ks":{"a":0,"k":{"c":true,"v":[[84.5137,113.7217],[83.4376727,114.810229],[83.4468,116.3408],[86.1567,122.7764],[88.7752913,123.840668],[89.8433,121.2236],[87.1333,114.7881],[86.0448659,113.711117]],"i":[[0.488702399999994,-0.20686299999999846],[0.20009410000000116,-0.4912050000000079],[-0.20593809999999735,-0.48878299999999797],[0,0],[-1.0169990000000126,0.42836100000000954],[0.4269072999999963,1.0176099999999906],[0,0],[0.49151519999999493,0.20008799999999383]],"o":[[-0.4888607000000036,0.20575499999999636],[-0.20009409999998695,0.4912049999999937],[0,0],[0.42981399999999326,1.0163860000000113],[1.0169989999999984,-0.42836099999999533],[0,0],[-0.20527549999999906,-0.489372000000003],[-0.49151510000000087,-0.2000890000000055]]}}},{"ty":"st","o":{"a":0,"k":0},"w":{"a":0,"k":0},"c":{"a":0,"k":[0,0,0,0]},"lc":3,"lj":1},{"ty":"fl","o":{"a":0,"k":100},"r":1,"c":{"a":0,"k":[0,0.47843137254901963,0.5294117647058824,1]}},{"ty":"tr","o":{"a":0,"k":100},"a":{"a":0,"k":[0,0]},"s":{"a":0,"k":[100,100]},"p":{"a":0,"k":[0,0]},"r":{"a":0,"k":0}}]},{"ty":"gr","it":[{"ty":"sh","ks":{"a":0,"k":{"c":true,"v":[[42.7104,16.4355],[44.3746562,15.5397836],[44.5527,13.6582],[41.8433,7.2236],[39.2247087,6.15933224],[38.1567,8.7764],[40.8662,15.2109]],"i":[[-0.8051665999999997,0.00015149999999763963],[-0.37014469999999733,0.557999800000001],[0.2589114999999964,0.6175238999999983],[0,0],[1.0169989999999984,-0.4283610900000001],[-0.42690730000000343,-1.0176100800000007],[0,0]],"o":[[0.6696031000000033,-0.0016011000000020204],[0.3701448000000056,-0.5579996999999999],[0,0],[-0.42981400000000036,-1.0163858000000001],[-1.0169989999999984,0.42836110000000005],[0,0],[0.31225669999999894,0.7421515999999997]]}}},{"ty":"st","o":{"a":0,"k":0},"w":{"a":0,"k":0},"c":{"a":0,"k":[0,0,0,0]},"lc":3,"lj":1},{"ty":"fl","o":{"a":0,"k":100},"r":1,"c":{"a":0,"k":[0,0.47843137254901963,0.5294117647058824,1]}},{"ty":"tr","o":{"a":0,"k":100},"a":{"a":0,"k":[0,0]},"s":{"a":0,"k":[100,100]},"p":{"a":0,"k":[0,0]},"r":{"a":0,"k":0}}]},{"ty":"gr","it":[{"ty":"sh","ks":{"a":0,"k":{"c":true,"v":[[113.7876,87.1338],[120.2241,89.8438],[122.841638,88.7750612],[121.7759,86.1563],[115.3394,83.4463],[112.721862,84.5150388]],"i":[[-1.016959,-0.42933669999999324],[0,0],[-0.4281710000000061,1.0174504000000013],[1.0169590000000142,0.42933669999999324],[0,0],[0.42817099999999186,-1.0174504000000013]],"o":[[0,0],[1.0179409999999933,0.427004299999993],[0.42817099999999186,-1.0174504999999954],[0,0],[-1.0179409999999933,-0.427004299999993],[-0.4281710000000061,1.0174504999999954]]}}},{"ty":"st","o":{"a":0,"k":0},"w":{"a":0,"k":0},"c":{"a":0,"k":[0,0,0,0]},"lc":3,"lj":1},{"ty":"fl","o":{"a":0,"k":100},"r":1,"c":{"a":0,"k":[0,0.47843137254901963,0.5294117647058824,1]}},{"ty":"tr","o":{"a":0,"k":100},"a":{"a":0,"k":[0,0]},"s":{"a":0,"k":[100,100]},"p":{"a":0,"k":[0,0]},"r":{"a":0,"k":0}}]},{"ty":"gr","it":[{"ty":"sh","ks":{"a":0,"k":{"c":true,"v":[[6.22363,41.8428],[12.6592,44.5527],[15.2783,43.4863],[14.2119,40.8672],[7.77637,38.1572],[5.78949667,38.4037469],[5.01217697,40.2488011]],"i":[[-0.6598851000000003,-0.2763668999999993],[0,0],[-0.4287662999999995,1.0177227000000002],[1.0177227000000002,0.4287663000000066],[0,0],[0.5705030600000001,-0.43168650000000497],[-0.08960097999999928,-0.7097878000000009]],"o":[[0,0],[1.0177227000000002,0.4287662999999995],[0.4287662999999995,-1.0177227000000002],[0,0],[-0.6587100000000001,-0.2791561000000016],[-0.57050307,0.43168649999999786],[0.08960097000000022,0.7097876999999997]]}}},{"ty":"st","o":{"a":0,"k":0},"w":{"a":0,"k":0},"c":{"a":0,"k":[0,0,0,0]},"lc":3,"lj":1},{"ty":"fl","o":{"a":0,"k":100},"r":1,"c":{"a":0,"k":[0,0.47843137254901963,0.5294117647058824,1]}},{"ty":"tr","o":{"a":0,"k":100},"a":{"a":0,"k":[0,0]},"s":{"a":0,"k":[100,100]},"p":{"a":0,"k":[0,0]},"r":{"a":0,"k":0}}]},{"ty":"gr","it":[{"ty":"sh","ks":{"a":0,"k":{"c":true,"v":[[85.2896,15.4375],[87.1338,14.2129],[89.8433,7.7764],[89.5957186,5.78997946],[87.7508961,5.01293818],[86.1567,6.2236],[83.4473,12.6602],[83.6243253,14.5424593]],"i":[[-0.6699046999999894,-0.0008380999999992866],[-0.31229119999999,0.7421231000000006],[0,0],[0.43176859999999806,0.5702417200000003],[0.7096431999999879,-0.08947780999999999],[0.2767032999999941,-0.6595718499999998],[0,0],[-0.37031069999999033,-0.558250000000001]],"o":[[0.8051537000000053,0.00010870000000018365],[0,0],[0.2785872999999981,-0.6587783299999996],[-0.43176859999999806,-0.5702417299999993],[-0.7096432000000021,0.08947781999999993],[0,0],[-0.25973170000000323,0.6175049999999995],[0.37031070000000454,0.5582498999999999]]}}},{"ty":"st","o":{"a":0,"k":0},"w":{"a":0,"k":0},"c":{"a":0,"k":[0,0,0,0]},"lc":3,"lj":1},{"ty":"fl","o":{"a":0,"k":100},"r":1,"c":{"a":0,"k":[0,0.47843137254901963,0.5294117647058824,1]}},{"ty":"tr","o":{"a":0,"k":100},"a":{"a":0,"k":[0,0]},"s":{"a":0,"k":[100,100]},"p":{"a":0,"k":[0,0]},"r":{"a":0,"k":0}}]},{"ty":"gr","it":[{"ty":"sh","ks":{"a":0,"k":{"c":true,"v":[[40.8667,113.7881],[38.1567,120.2236],[38.4042814,122.210021],[40.2491039,122.987062],[41.8433,121.7764],[44.5532,115.3408],[43.4863,112.7212]],"i":[[0.4287662999999995,-1.0179990000000032],[0,0],[-0.43176860000000516,-0.5702419999999933],[-0.7096432000000021,0.08947799999999972],[-0.2767033000000012,0.6595720000000114],[0,0],[1.0179988000000009,0.4287660000000102]],"o":[[0,0],[-0.2785872999999981,0.6587779999999981],[0.43176859999999806,0.5702409999999958],[0.709643199999995,-0.08947799999999972],[0,0],[0.4287662000000054,-1.0179990000000032],[-1.017998900000002,-0.428765999999996]]}}},{"ty":"st","o":{"a":0,"k":0},"w":{"a":0,"k":0},"c":{"a":0,"k":[0,0,0,0]},"lc":3,"lj":1},{"ty":"fl","o":{"a":0,"k":100},"r":1,"c":{"a":0,"k":[0,0.47843137254901963,0.5294117647058824,1]}},{"ty":"tr","o":{"a":0,"k":100},"a":{"a":0,"k":[0,0]},"s":{"a":0,"k":[100,100]},"p":{"a":0,"k":[0,0]},"r":{"a":0,"k":0}}]},{"ty":"gr","it":[{"ty":"sh","ks":{"a":0,"k":{"c":true,"v":[[113.7207,43.4863],[114.80889,44.5631551],[116.3398,44.5537],[122.7764,41.8438],[123.987062,40.2496039],[123.210021,38.4047814],[121.2236,38.1572],[114.7876,40.8662]],"i":[[-0.428646999999998,-1.0181384999999992],[-0.4913180000000068,-0.20023410000000297],[-0.4888079999999917,0.20628750000000196],[0,0],[-0.08947799999999972,0.7096432000000021],[0.5702409999999958,0.43176860000000516],[0.6587779999999981,-0.2785873000000052],[0,0]],"o":[[0.2053680000000071,0.48919479999999993],[0.4913179999999926,0.20023409999999586],[0,0],[0.6595720000000114,-0.2767033000000012],[0.08947799999999972,-0.709643199999995],[-0.5702419999999933,-0.43176859999999806],[0,0],[-1.0179540000000031,0.4290850000000006]]}}},{"ty":"st","o":{"a":0,"k":0},"w":{"a":0,"k":0},"c":{"a":0,"k":[0,0,0,0]},"lc":3,"lj":1},{"ty":"fl","o":{"a":0,"k":100},"r":1,"c":{"a":0,"k":[0,0.47843137254901963,0.5294117647058824,1]}},{"ty":"tr","o":{"a":0,"k":100},"a":{"a":0,"k":[0,0]},"s":{"a":0,"k":[100,100]},"p":{"a":0,"k":[0,0]},"r":{"a":0,"k":0}}]},{"ty":"gr","it":[{"ty":"sh","ks":{"a":0,"k":{"c":true,"v":[[13.6592,83.4473],[7.22363,86.1572],[6.01217697,87.7511989],[6.78949667,89.5962531],[8.77637,89.8428],[15.2119,87.1328],[16.2783,84.5137]],"i":[[1.0177227000000002,-0.4287662999999924],[0,0],[0.08960097000000022,-0.7097877000000068],[-0.57050307,-0.43168649999999786],[-0.6587099999999992,0.2791561000000087],[0,0],[0.4287662999999995,1.017722699999993]],"o":[[0,0],[-0.6598851000000003,0.2763668999999993],[-0.08960097999999928,0.7097878000000009],[0.5705030600000001,0.43168649999999786],[0,0],[1.0177227000000002,-0.4287663000000066],[-0.42876630000000127,-1.017722699999993]]}}},{"ty":"st","o":{"a":0,"k":0},"w":{"a":0,"k":0},"c":{"a":0,"k":[0,0,0,0]},"lc":3,"lj":1},{"ty":"fl","o":{"a":0,"k":100},"r":1,"c":{"a":0,"k":[0,0.47843137254901963,0.5294117647058824,1]}},{"ty":"tr","o":{"a":0,"k":100},"a":{"a":0,"k":[0,0]},"s":{"a":0,"k":[100,100]},"p":{"a":0,"k":[0,0]},"r":{"a":0,"k":0}}]},{"ty":"gr","it":[{"ty":"sh","ks":{"a":0,"k":{"c":true,"v":[[18.7451,21.5732],[23.6953,26.5234],[26.5217811,26.5217811],[26.5234,23.6953],[26.3848,23.5566],[26.3823,23.5537],[21.4141,18.5859],[18.5869963,18.5869963],[18.5859,21.4141]],"i":[[0,0],[0,0],[-0.7803262999999987,0.7803262000000011],[0.7794318000000011,0.7812196],[0,0],[0,0],[0,0],[0.7805578000000004,-0.7805578000000004],[-0.7799522000000003,-0.7811630000000029]],"o":[[0,0],[0.7812196,0.7794318000000011],[0.7803262000000011,-0.7803262999999987],[0,0],[0,0],[0,0],[-0.7811630000000029,-0.7799522000000003],[-0.7805578000000004,0.7805578000000004],[0,0]]}}},{"ty":"st","o":{"a":0,"k":0},"w":{"a":0,"k":0},"c":{"a":0,"k":[0,0,0,0]},"lc":3,"lj":1},{"ty":"fl","o":{"a":0,"k":100},"r":1,"c":{"a":0,"k":[0,0.47843137254901963,0.5294117647058824,1]}},{"ty":"tr","o":{"a":0,"k":100},"a":{"a":0,"k":[0,0]},"s":{"a":0,"k":[100,100]},"p":{"a":0,"k":[0,0]},"r":{"a":0,"k":0}}]},{"ty":"gr","it":[{"ty":"sh","ks":{"a":0,"k":{"c":true,"v":[[101.6162,104.4434],[101.6182,104.4463],[106.5859,109.4141],[108.518194,109.932928],[109.932928,108.518194],[109.4141,106.5859],[109.2549,106.4268],[104.3052,101.4766],[102.372689,100.957203],[100.957703,102.372189],[101.4771,104.3047]],"i":[[0,0],[0,0],[0,0],[-0.6905339999999995,0.18483599999999],[-0.1848370000000017,0.6905339999999995],[0.5058629999999908,0.5050780000000117],[0,0],[0,0],[0.6907029999999992,-0.18479000000000667],[0.18479100000000415,-0.6907020000000017],[-0.5061559999999901,-0.5049980000000005]],"o":[[0,0],[0,0],[0.5050780000000117,0.5058629999999908],[0.6905339999999995,-0.1848370000000017],[0.18483599999999,-0.6905339999999995],[0,0],[0,0],[-0.5049980000000005,-0.5061560000000043],[-0.6907019999999875,0.18479099999998994],[-0.18478999999999246,0.6907029999999992],[0,0]]}}},{"ty":"st","o":{"a":0,"k":0},"w":{"a":0,"k":0},"c":{"a":0,"k":[0,0,0,0]},"lc":3,"lj":1},{"ty":"fl","o":{"a":0,"k":100},"r":1,"c":{"a":0,"k":[0,0.47843137254901963,0.5294117647058824,1]}},{"ty":"tr","o":{"a":0,"k":100},"a":{"a":0,"k":[0,0]},"s":{"a":0,"k":[100,100]},"p":{"a":0,"k":[0,0]},"r":{"a":0,"k":0}}]},{"ty":"gr","it":[{"ty":"sh","ks":{"a":0,"k":{"c":true,"v":[[109.4141,18.5859],[108,17.9999993],[106.5859,18.5859],[101.6182,23.5537],[101.6162,23.5566],[101.4771,23.6953],[100.957703,25.6278108],[102.372689,27.0427968],[104.3052,26.5234],[109.2549,21.5732],[109.4141,21.4141],[110.000001,20]],"i":[[0.37513799999999264,0.37499200000000243],[0.5304220000000015,0],[0.374992000000006,-0.37513809999999737],[0,0],[0,0],[0,0],[-0.18478999999999246,-0.6907023999999993],[-0.6907019999999875,-0.18479050000000186],[-0.5049980000000005,0.5061564000000018],[0,0],[0,0],[0,0.5304220999999991]],"o":[[-0.374992000000006,-0.37513809999999737],[-0.5304220000000015,0],[0,0],[0,0],[0,0],[-0.5061559999999901,0.5049981000000017],[0.18479100000000415,0.6907024000000028],[0.6907029999999992,0.18479059999999947],[0,0],[0,0],[0.37513799999999264,-0.37499200000000243],[0,-0.5304220999999991]]}}},{"ty":"st","o":{"a":0,"k":0},"w":{"a":0,"k":0},"c":{"a":0,"k":[0,0,0,0]},"lc":3,"lj":1},{"ty":"fl","o":{"a":0,"k":100},"r":1,"c":{"a":0,"k":[0,0.47843137254901963,0.5294117647058824,1]}},{"ty":"tr","o":{"a":0,"k":100},"a":{"a":0,"k":[0,0]},"s":{"a":0,"k":[100,100]},"p":{"a":0,"k":[0,0]},"r":{"a":0,"k":0}}]},{"ty":"gr","it":[{"ty":"sh","ks":{"a":0,"k":{"c":true,"v":[[18.5859,109.4141],[20,110.000001],[21.4141,109.4141],[26.3823,104.4463],[26.3848,104.4434],[26.5234,104.3047],[27.0427968,102.372189],[25.6278108,100.957203],[23.6953,101.4766],[18.7451,106.4268],[18.5859,106.5859],[17.9999993,108]],"i":[[-0.37513809999999737,-0.374992000000006],[-0.5304220999999991,0],[-0.37499200000000243,0.37513799999999264],[0,0],[0,0],[0,0],[0.18479059999999947,0.6907029999999992],[0.6907024000000028,0.18479099999998994],[0.5049981000000017,-0.5061560000000043],[0,0],[0,0],[0,-0.5304220000000015]],"o":[[0.37499200000000243,0.37513799999999264],[0.5304220999999991,0],[0,0],[0,0],[0,0],[0.5061564000000018,-0.5049980000000005],[-0.18479050000000186,-0.6907020000000017],[-0.6907023999999993,-0.18479000000000667],[0,0],[0,0],[-0.37513809999999737,0.374992000000006],[0,0.5304220000000015]]}}},{"ty":"st","o":{"a":0,"k":0},"w":{"a":0,"k":0},"c":{"a":0,"k":[0,0,0,0]},"lc":3,"lj":1},{"ty":"fl","o":{"a":0,"k":100},"r":1,"c":{"a":0,"k":[0,0.47843137254901963,0.5294117647058824,1]}},{"ty":"tr","o":{"a":0,"k":100},"a":{"a":0,"k":[0,0]},"s":{"a":0,"k":[100,100]},"p":{"a":0,"k":[0,0]},"r":{"a":0,"k":0}}]},{"ty":"gr","it":[{"ty":"sh","ks":{"a":0,"k":{"c":true,"v":[[2,66],[9,66],[11,64],[9,62],[2,62],[0,64]],"i":[[-1.1045695,0],[0,0],[0,1.1045694999999967],[1.1045695000000002,0],[0,0],[1.3527075e-16,-1.1045694999999967]],"o":[[0,0],[1.1045695000000002,0],[0,-1.1045694999999967],[0,0],[-1.1045695,0],[-1.3527075e-16,1.1045694999999967]]}}},{"ty":"st","o":{"a":0,"k":0},"w":{"a":0,"k":0},"c":{"a":0,"k":[0,0,0,0]},"lc":3,"lj":1},{"ty":"fl","o":{"a":0,"k":100},"r":1,"c":{"a":0,"k":[0,0.47843137254901963,0.5294117647058824,1]}},{"ty":"tr","o":{"a":0,"k":100},"a":{"a":0,"k":[0,0]},"s":{"a":0,"k":[100,100]},"p":{"a":0,"k":[0,0]},"r":{"a":0,"k":0}}]},{"ty":"gr","it":[{"ty":"sh","ks":{"a":0,"k":{"c":true,"v":[[117,64],[119,66],[126,66],[128,64],[126,62],[119,62]],"i":[[0.00005000000000165983,-1.1045488999999975],[-1.1045490000000058,-0.000049700000005259426],[0,0],[0,1.1045694999999967],[1.104568999999998,0],[0,0]],"o":[[0.00005000000000165983,1.1045488999999975],[0,0],[1.104568999999998,0],[0,-1.1045694999999967],[0,0],[-1.1045490000000058,0.000049699999998154]]}}},{"ty":"st","o":{"a":0,"k":0},"w":{"a":0,"k":0},"c":{"a":0,"k":[0,0,0,0]},"lc":3,"lj":1},{"ty":"fl","o":{"a":0,"k":100},"r":1,"c":{"a":0,"k":[0,0.47843137254901963,0.5294117647058824,1]}},{"ty":"tr","o":{"a":0,"k":100},"a":{"a":0,"k":[0,0]},"s":{"a":0,"k":[100,100]},"p":{"a":0,"k":[0,0]},"r":{"a":0,"k":0}}]},{"ty":"gr","it":[{"ty":"sh","ks":{"a":0,"k":{"c":true,"v":[[62,119],[62,126],[64,128],[66,126],[66,119],[64,117]],"i":[[0,-1.104568999999998],[0,0],[-1.1045694999999967,0],[0,1.104568999999998],[0,0],[1.1045694999999967,0]],"o":[[0,0],[0,1.104568999999998],[1.1045694999999967,0],[0,0],[0,-1.104568999999998],[-1.1045694999999967,0]]}}},{"ty":"st","o":{"a":0,"k":0},"w":{"a":0,"k":0},"c":{"a":0,"k":[0,0,0,0]},"lc":3,"lj":1},{"ty":"fl","o":{"a":0,"k":100},"r":1,"c":{"a":0,"k":[0,0.47843137254901963,0.5294117647058824,1]}},{"ty":"tr","o":{"a":0,"k":100},"a":{"a":0,"k":[0,0]},"s":{"a":0,"k":[100,100]},"p":{"a":0,"k":[0,0]},"r":{"a":0,"k":0}}]},{"ty":"gr","it":[{"ty":"sh","ks":{"a":0,"k":{"c":true,"v":[[66,9],[66,2],[64,0],[62,2],[62,9],[64,11]],"i":[[0,1.1045695000000002],[0,0],[1.1045694999999967,6.76353751e-17],[0,-1.1045695],[0,0],[-1.1045694999999967,0]],"o":[[0,0],[0,-1.1045695],[-1.1045694999999967,-6.76353751e-17],[0,0],[0,1.1045695000000002],[1.1045694999999967,0]]}}},{"ty":"st","o":{"a":0,"k":0},"w":{"a":0,"k":0},"c":{"a":0,"k":[0,0,0,0]},"lc":3,"lj":1},{"ty":"fl","o":{"a":0,"k":100},"r":1,"c":{"a":0,"k":[0,0.47843137254901963,0.5294117647058824,1]}},{"ty":"tr","o":{"a":0,"k":100},"a":{"a":0,"k":[0,0]},"s":{"a":0,"k":[100,100]},"p":{"a":0,"k":[0,0]},"r":{"a":0,"k":0}}]}],"op":1}],"op":1,"w":550,"h":400}